point_index,x,y,z,x_D,y_D,z_D,nutEq_true,nut_pred,error,relative_error,ID,ax,theta,z_original,ax_d,z_d,nut
49124,-238.0,-8.881784e-16,869.22253,-1.8888888,-7.0490355e-18,6.8985915,5.352597,1.0152111,-4.337386,-0.810333,3,-233.0,-1.5707963267948966,869.22253,-1.8492063492063493,6.8985915,32.895992
49128,-238.0,-8.881784e-16,896.978,-1.8888888,-7.0490355e-18,7.118873,4.866129,1.0218544,-3.8442745,-0.7900067,3,-233.0,-1.5707963267948966,896.978,-1.8492063492063493,7.118873,32.893734
49134,-322.0,-8.881784e-16,924.7337,-2.5555556,-7.0490355e-18,7.339156,4.407287,1.1851578,-3.2221293,-0.7310913,3,-317.0,-1.5707963267948966,924.7337,-2.515873015873016,7.339156,33.76304
49181,-182.0,0.0,869.2222,-1.4444444,0.0,6.898589,6.4219837,0.9823532,-5.4396305,-0.8470327,3,-177.0,-1.5707963267948966,869.2222,-1.4047619047619047,6.898589,32.94792
49182,-210.0,-1.7763568e-15,869.2228,-1.6666666,-1.4098071e-17,6.8985934,9.77517,0.99874115,-8.776429,-0.89782876,3,-205.0,-1.5707963267948966,869.2228,-1.626984126984127,6.8985934,32.924
49188,-182.0,0.0,896.97784,-1.4444444,0.0,7.1188717,5.941869,0.99123955,-4.950629,-0.83317715,3,-177.0,-1.5707963267948966,896.97784,-1.4047619047619047,7.1188717,32.94514
49189,-210.0,0.0,896.9783,-1.6666666,0.0,7.118875,9.28518,1.0064487,-8.278731,-0.891607,3,-205.0,-1.5707963267948966,896.9783,-1.626984126984127,7.118875,32.92148
49568,-630.0,1.7763568e-15,702.68945,-5.0,1.4098071e-17,5.5769005,17.95146,1.2000847,-16.751375,-0.9331483,3,-625.0,-1.5707963267948966,702.68945,-4.9603174603174605,5.5769005,33.447887
49569,-630.0,-8.881784e-16,730.44495,-5.0,-7.0490355e-18,5.797182,12.676003,1.2260017,-11.450002,-0.9032817,3,-625.0,-1.5707963267948966,730.44495,-4.9603174603174605,5.797182,31.652351
49577,-630.0,0.0,758.2005,-5.0,0.0,6.017464,16.532543,1.258482,-15.274061,-0.9238785,3,-625.0,-1.5707963267948966,758.2005,-4.9603174603174605,6.017464,31.291857
49585,-630.0,0.0,785.956,-5.0,0.0,6.237746,13.777913,1.2143326,-12.5635805,-0.9118638,3,-625.0,-1.5707963267948966,785.956,-4.9603174603174605,6.237746,33.087143
49593,-630.0,-8.881784e-16,813.7115,-5.0,-7.0490355e-18,6.458028,22.869806,1.322586,-21.54722,-0.9421689,3,-625.0,-1.5707963267948966,813.7115,-4.9603174603174605,6.458028,33.80935
49594,-462.0,0.0,841.4664,-3.6666667,0.0,6.6783047,4.7855453,1.2439995,-3.5415459,-0.7400506,3,-457.0,-1.5707963267948966,841.4664,-3.626984126984127,6.6783047,33.787285
49595,-434.0,0.0,841.46704,-3.4444444,0.0,6.67831,4.588935,1.2295837,-3.3593512,-0.73205465,3,-429.0,-1.5707963267948966,841.46704,-3.4047619047619047,6.67831,33.78349
49596,-490.0,0.0,841.4591,-3.8888888,0.0,6.678247,4.6322513,1.2584305,-3.3738208,-0.7283329,3,-485.0,-1.5707963267948966,841.4591,-3.8492063492063493,6.678247,33.79114
49597,-518.0,1.7763568e-15,841.4591,-4.111111,1.4098071e-17,6.678247,4.595321,1.2729645,-3.3223567,-0.7229868,3,-513.0,-1.5707963267948966,841.4591,-4.071428571428571,6.678247,33.795097
49601,-630.0,-8.881784e-16,841.46704,-5.0,-7.0490355e-18,6.67831,23.340048,1.3343544,-22.005693,-0.94282985,3,-625.0,-1.5707963267948966,841.46704,-4.9603174603174605,6.67831,33.80935
49609,-630.0,0.0,869.22253,-5.0,0.0,6.8985915,5.935863,1.2866478,-4.649215,-0.7832417,3,-625.0,-1.5707963267948966,869.22253,-4.9603174603174605,6.8985915,33.3746
49610,-490.0,0.0,896.9731,-3.8888888,0.0,7.118834,5.0152397,1.1667061,-3.8485336,-0.76736784,3,-485.0,-1.5707963267948966,896.9731,-3.8492063492063493,7.118834,32.663773
49612,-518.0,0.0,896.9731,-4.111111,0.0,7.118834,7.4944844,1.1823635,-6.312121,-0.8422355,3,-513.0,-1.5707963267948966,896.9731,-4.071428571428571,7.118834,32.61478
49613,-546.0,0.0,896.97546,-4.3333335,0.0,7.118853,6.8098283,1.1979961,-5.611832,-0.8240784,3,-541.0,-1.5707963267948966,896.97546,-4.2936507936507935,7.118853,32.592247
49616,-630.0,-8.881784e-16,896.978,-5.0,-7.0490355e-18,7.118873,7.265455,1.2928314,-5.9726233,-0.8220577,3,-625.0,-1.5707963267948966,896.978,-4.9603174603174605,7.118873,33.374603
49617,-490.0,0.0,924.7299,-3.8888888,0.0,7.339126,6.420431,1.2675133,-5.152918,-0.8025813,3,-485.0,-1.5707963267948966,924.7299,-3.8492063492063493,7.339126,33.789677
49618,-462.0,0.0,924.7316,-3.6666667,0.0,7.33914,4.691809,1.2532806,-3.4385285,-0.73287904,3,-457.0,-1.5707963267948966,924.7316,-3.626984126984127,7.33914,33.785458
49619,-518.0,1.7763568e-15,924.7299,-4.111111,1.4098071e-17,7.339126,9.166873,1.281887,-7.884986,-0.86016095,3,-513.0,-1.5707963267948966,924.7299,-4.071428571428571,7.339126,33.79384
49620,-546.0,0.0,924.7316,-4.3333335,0.0,7.33914,8.712742,1.2961845,-7.4165573,-0.85123116,3,-541.0,-1.5707963267948966,924.7316,-4.2936507936507935,7.33914,33.79795
49621,-574.0,-8.881784e-16,924.7335,-4.5555553,-7.0490355e-18,7.3391547,4.6000156,1.3116913,-3.2883244,-0.71485066,3,-569.0,-1.5707963267948966,924.7335,-4.515873015873016,7.3391547,33.802135
49622,-602.0,0.0,924.7335,-4.7777777,0.0,7.3391547,5.0841036,1.3338318,-3.7502718,-0.73764664,3,-597.0,-1.5707963267948966,924.7335,-4.738095238095238,7.3391547,33.80637
49623,-630.0,0.0,924.7335,-5.0,0.0,7.3391547,23.736618,1.3609047,-22.375713,-0.9426665,3,-625.0,-1.5707963267948966,924.7335,-4.9603174603174605,7.3391547,33.80935
49630,-630.0,-8.881784e-16,952.489,-5.0,-7.0490355e-18,7.559437,24.13021,1.3575935,-22.772617,-0.9437388,3,-625.0,-1.5707963267948966,952.489,-4.9603174603174605,7.559437,33.80935
49637,-630.0,0.0,980.2439,-5.0,0.0,7.7797136,32.931152,1.3499832,-31.58117,-0.9590059,3,-625.0,-1.5707963267948966,980.2439,-4.9603174603174605,7.7797136,33.80935
49638,-490.0,-8.881784e-16,1008.0,-3.8888888,-7.0490355e-18,8.0,7.5440903,1.2569656,-6.2871246,-0.8333841,3,-485.0,-1.5707963267948966,1008.0,-3.8492063492063493,8.0,33.36208
49639,-462.0,0.0,1008.0,-3.6666667,0.0,8.0,5.7744026,1.2304611,-4.5439415,-0.7869111,3,-457.0,-1.5707963267948966,1008.0,-3.626984126984127,8.0,33.178318
49640,-518.0,0.0,1008.0,-4.111111,0.0,8.0,13.724605,1.2943954,-12.430209,-0.905688,3,-513.0,-1.5707963267948966,1008.0,-4.071428571428571,8.0,33.583836
49641,-546.0,-8.881784e-16,1008.0,-4.3333335,-7.0490355e-18,8.0,19.23598,1.3300438,-17.905935,-0.93085647,3,-541.0,-1.5707963267948966,1008.0,-4.2936507936507935,8.0,33.74634
49642,-574.0,0.0,1008.0,-4.5555553,0.0,8.0,20.665596,1.3085022,-19.357094,-0.9366821,3,-569.0,-1.5707963267948966,1008.0,-4.515873015873016,8.0,33.559772
49643,-602.0,1.7763568e-15,1008.0,-4.7777777,1.4098071e-17,8.0,25.423721,1.2655888,-24.158133,-0.95022017,3,-597.0,-1.5707963267948966,1008.0,-4.738095238095238,8.0,32.599712
49644,-630.0,0.0,1008.0,-5.0,0.0,8.0,40.208313,1.2710114,-38.9373,-0.96838933,3,-625.0,-1.5707963267948966,1008.0,-4.9603174603174605,8.0,32.84315
49662,-406.0,-8.881784e-16,841.46704,-3.2222223,-7.0490355e-18,6.67831,4.4133663,1.2145576,-3.1988087,-0.72480017,3,-401.0,-1.5707963267948966,841.46704,-3.1825396825396823,6.67831,33.779694
49682,-378.0,-8.881784e-16,1008.0,-3.0,-7.0490355e-18,8.0,4.89344,1.2103653,-3.6830745,-0.7526555,3,-373.0,-1.5707963267948966,1008.0,-2.9603174603174605,8.0,33.35632
49684,-406.0,0.0,1008.0,-3.2222223,0.0,8.0,5.4072323,1.2063541,-4.200878,-0.7768999,3,-401.0,-1.5707963267948966,1008.0,-3.1825396825396823,8.0,33.17375
49685,-434.0,0.0,1008.0,-3.4444444,0.0,8.0,5.666996,1.2137661,-4.45323,-0.78581846,3,-429.0,-1.5707963267948966,1008.0,-3.4047619047619047,8.0,33.098946
49710,-630.0,0.0,619.4228,-5.0,0.0,4.916054,16.826397,1.2228165,-15.60358,-0.9273275,3,-625.0,-1.5707963267948966,619.4228,-4.9603174603174605,4.916054,33.80935
49711,-630.0,-8.881784e-16,647.17834,-5.0,-7.0490355e-18,5.136336,23.252134,1.25214,-21.999994,-0.94614947,3,-625.0,-1.5707963267948966,647.17834,-4.9603174603174605,5.136336,33.80935
49715,-518.0,0.0,674.9242,-4.111111,0.0,5.356541,5.10147,1.1907082,-3.9107618,-0.76659507,3,-513.0,-1.5707963267948966,674.9242,-4.071428571428571,5.356541,33.796436
49716,-546.0,-8.881784e-16,674.9242,-4.3333335,-7.0490355e-18,5.356541,4.361482,1.1796646,-3.1818175,-0.72952664,3,-541.0,-1.5707963267948966,674.9242,-4.2936507936507935,5.356541,33.673428
49719,-630.0,-8.881784e-16,674.9339,-5.0,-7.0490355e-18,5.3566184,24.953234,1.245224,-23.70801,-0.9500977,3,-625.0,-1.5707963267948966,674.9339,-4.9603174603174605,5.3566184,33.80935
49755,-630.0,0.0,480.64478,-5.0,0.0,3.814641,5.7220054,1.0523643,-4.669641,-0.8160847,3,-625.0,-1.5707963267948966,480.64478,-4.9603174603174605,3.814641,31.526487
49756,-630.0,0.0,508.4004,-5.0,0.0,4.0349236,5.863464,1.1134605,-4.7500033,-0.8101019,3,-625.0,-1.5707963267948966,508.4004,-4.9603174603174605,4.0349236,33.440952
49766,-630.0,0.0,536.156,-5.0,0.0,4.2552066,5.7653446,1.0508499,-4.7144947,-0.8177299,3,-625.0,-1.5707963267948966,536.156,-4.9603174603174605,4.2552066,32.68242
49773,-630.0,-8.881784e-16,563.9116,-5.0,-7.0490355e-18,4.475489,4.570133,1.0668812,-3.503252,-0.7665536,3,-625.0,-1.5707963267948966,563.9116,-4.9603174603174605,4.475489,32.682636
49780,-630.0,0.0,591.6672,-5.0,0.0,4.695771,5.0340304,1.1973267,-3.8367038,-0.76215345,3,-625.0,-1.5707963267948966,591.6672,-4.9603174603174605,4.695771,33.80935
53582,-630.0,0.0,341.8661,-5.0,0.0,2.713223,7.8748403,1.479866,-6.394974,-0.8120767,3,-625.0,-1.5707963267948966,341.8661,-4.9603174603174605,2.713223,33.80935
53583,-630.0,0.0,369.62192,-5.0,0.0,2.9335072,15.80842,1.2754707,-14.532949,-0.919317,3,-625.0,-1.5707963267948966,369.62192,-4.9603174603174605,2.9335072,31.857222
53593,-630.0,-8.881784e-16,397.3777,-5.0,-7.0490355e-18,3.1537912,11.620606,1.1887398,-10.431867,-0.8977041,3,-625.0,-1.5707963267948966,397.3777,-4.9603174603174605,3.1537912,31.006351
53602,-630.0,-8.881784e-16,425.1334,-5.0,-7.0490355e-18,3.3740745,5.758601,1.1654301,-4.593171,-0.7976192,3,-625.0,-1.5707963267948966,425.1334,-4.9603174603174605,3.3740745,32.958504
54045,-374.5,-1.8987572e-14,130.23436,-2.9722223,-1.5069501e-16,1.033606,5.257708,2.5346203,-2.7230878,-0.517923,4,-369.5,-1.5707963267948961,130.23436,-2.9325396825396823,1.033606,33.193073
54046,-378.0,-2.3305054e-14,130.23436,-3.0,-1.8496075e-16,1.033606,5.3674073,2.5371704,-2.830237,-0.52730054,4,-373.0,-1.570796326794896,130.23436,-2.9603174603174605,1.033606,33.20195
54119,-378.0,-2.323425e-14,126.76492,-3.0,-1.8439881e-16,1.0060709,4.895172,2.0402813,-2.8548908,-0.5832054,4,-373.0,-1.570796326794896,126.76492,-2.9603174603174605,1.0060709,28.1514
55227,-381.5,-2.3513916e-14,130.23436,-3.0277777,-1.8661838e-16,1.033606,5.4051533,2.5397148,-2.8654385,-0.53013086,4,-376.5,-1.570796326794896,130.23436,-2.988095238095238,1.033606,33.21079
55235,-381.5,-2.3640346e-14,126.76493,-3.0277777,-1.876218e-16,1.0060709,4.9537535,2.0481262,-2.9056273,-0.58655065,4,-376.5,-1.570796326794896,126.76493,-2.988095238095238,1.0060709,28.204248
55236,-385.0,-2.4046444e-14,126.764946,-3.0555556,-1.908448e-16,1.006071,4.9376416,2.0541935,-2.8834481,-0.58397275,4,-380.0,-1.570796326794896,126.764946,-3.015873015873016,1.006071,28.24234
55576,-616.0,-1.9652135e-14,102.47897,-4.888889,-1.5596932e-16,0.81332517,4.707435,0.7127638,-3.9946713,-0.84858763,4,-611.0,-1.570796326794895,102.47897,-4.849206349206349,0.81332517,13.960799
55579,-619.5,-1.6994383e-14,102.47903,-4.9166665,-1.3487606e-16,0.8133256,5.2391315,0.713212,-4.5259194,-0.8638683,4,-614.5,-1.5707963267948952,102.47903,-4.876984126984127,0.8133256,13.957537
55581,-630.0,-1.2028171e-14,105.94832,-5.0,-9.546168e-17,0.84085965,4.0865035,0.5257616,-3.560742,-0.87134194,4,-625.0,-1.570796326794896,105.94832,-4.9603174603174605,0.84085965,11.264765
55679,-623.0,-1.433663e-14,102.478905,-4.9444447,-1.1378278e-16,0.81332463,4.4498725,0.6515198,-3.7983527,-0.85358685,4,-618.0,-1.5707963267948954,102.478905,-4.904761904761905,0.81332463,13.121904
55777,-577.5,-5.5297254e-15,123.295494,-4.5833335,-4.388671e-17,0.97853565,4.753083,0.8136196,-3.9394636,-0.8288228,4,-572.5,-1.5707963267948963,123.295494,-4.5436507936507935,0.97853565,15.036768
55808,-616.0,-1.5909528e-14,133.7039,-4.888889,-1.262661e-16,1.0611421,4.8646054,0.9218378,-3.9427676,-0.81050104,4,-611.0,-1.5707963267948961,133.7039,-4.849206349206349,1.0611421,16.436954
55809,-612.5,-1.2623203e-14,133.70386,-4.861111,-1.0018415e-16,1.0611417,4.2855206,0.93053913,-3.3549814,-0.7828644,4,-607.5,-1.5707963267948963,133.70386,-4.821428571428571,1.0611417,16.571466
55811,-616.0,-1.6862442e-14,130.23447,-4.888889,-1.338289e-16,1.0336069,4.7100196,1.2588882,-3.4511313,-0.7327212,4,-611.0,-1.5707963267948961,130.23447,-4.849206349206349,1.0336069,20.463676
55818,-619.5,-1.653693e-14,133.70398,-4.9166665,-1.3124547e-16,1.0611427,4.4223022,0.85725784,-3.5650444,-0.8061512,4,-614.5,-1.5707963267948961,133.70398,-4.876984126984127,1.0611427,15.427713
55823,-626.5,-1.7791729e-14,133.7038,-4.9722223,-1.4120419e-16,1.0611413,5.1948414,0.7722769,-4.4225645,-0.85133773,4,-621.5,-1.5707963267948961,133.7038,-4.932539682539683,1.0611413,13.959577
55824,-626.5,-1.8240106e-14,130.23436,-4.9722223,-1.4476275e-16,1.033606,5.056312,0.7649908,-4.2913213,-0.84870577,4,-621.5,-1.5707963267948961,130.23436,-4.932539682539683,1.033606,13.809457
55838,-626.5,-1.7549696e-14,144.11209,-4.9722223,-1.392833e-16,1.1437467,4.38732,0.86424446,-3.5230756,-0.80301315,4,-621.5,-1.5707963267948963,144.11209,-4.932539682539683,1.1437467,14.884545
55839,-630.0,-1.8593593e-14,144.11209,-5.0,-1.475682e-16,1.1437467,6.939229,0.7652998,-6.173929,-0.889714,4,-625.0,-1.5707963267948961,144.11209,-4.9603174603174605,1.1437467,13.20278
55843,-626.5,-1.771105e-14,137.17323,-4.9722223,-1.405639e-16,1.0886765,4.531501,0.72086716,-3.8106337,-0.84092087,4,-621.5,-1.5707963267948961,137.17323,-4.932539682539683,1.0886765,12.655262
55968,-630.0,-1.396011e-14,161.45926,-5.0,-1.10794523e-16,1.2814227,6.5598626,0.8651848,-5.694678,-0.8681093,4,-625.0,-1.5707963267948963,161.45926,-4.9603174603174605,1.2814227,13.961413
55971,-630.0,-1.513302e-14,157.98982,-5.0,-1.2010333e-16,1.2538875,6.036488,0.8104191,-5.226069,-0.8657466,4,-625.0,-1.5707963267948963,157.98982,-4.9603174603174605,1.2538875,12.97305
55982,-630.0,-9.769963e-15,175.33699,-5.0,-7.753939e-17,1.3915634,5.125939,0.801425,-4.324514,-0.843653,4,-625.0,-1.5707963267948963,175.33699,-4.9603174603174605,1.3915634,12.119008
55983,-626.5,-9.744284e-15,175.337,-4.9722223,-7.7335584e-17,1.3915635,7.1401978,0.8918133,-6.2483845,-0.87509966,4,-621.5,-1.5707963267948963,175.337,-4.932539682539683,1.3915635,14.3936405
56104,-626.5,-8.8222674e-15,178.80644,-4.9722223,-7.0017993e-17,1.4190987,4.418301,0.7508917,-3.6674094,-0.8300497,4,-621.5,-1.5707963267948966,178.80644,-4.932539682539683,1.4190987,10.650769
56109,-630.0,-5.6813964e-15,185.7453,-5.0,-4.509045e-17,1.474169,6.2268085,0.90468884,-5.3221197,-0.8547107,4,-625.0,-1.5707963267948966,185.7453,-4.9603174603174605,1.474169,14.544915
56123,-626.5,-5.345983e-15,196.15361,-4.9722223,-4.2428436e-17,1.5567747,7.9781137,1.0878754,-6.8902383,-0.8636425,4,-621.5,-1.5707963267948966,196.15361,-4.932539682539683,1.5567747,18.272545
56124,-630.0,-2.1592706e-15,196.1536,-5.0,-1.7137068e-17,1.5567746,10.18732,0.99676514,-9.190555,-0.9021563,4,-625.0,-1.5707963267948966,196.1536,-4.9603174603174605,1.5567746,16.573967
56125,-630.0,-3.2389058e-15,192.68417,-5.0,-2.5705602e-17,1.5292394,7.7482743,0.798522,-6.9497523,-0.89694196,4,-625.0,-1.5707963267948966,192.68417,-4.9603174603174605,1.5292394,11.857492
56126,-626.5,-5.7011005e-15,192.68417,-4.9722223,-4.524683e-17,1.5292394,5.4869204,0.8464365,-4.640484,-0.8457356,4,-621.5,-1.5707963267948966,192.68417,-4.932539682539683,1.5292394,13.290919
56154,-630.0,-9.769963e-15,258.60342,-5.0,-7.753939e-17,2.0524082,4.930657,1.2659931,-3.6646638,-0.7432405,4,-625.0,-1.5707963267948966,258.60342,-4.9603174603174605,2.0524082,21.255356
56192,-630.0,3.7007435e-17,216.97021,-5.0,2.937098e-19,1.7219858,8.333984,1.1622257,-7.1717587,-0.8605438,4,-625.0,-1.5707963267948966,216.97021,-4.9603174603174605,1.7219858,19.035063
56196,-630.0,1.8503718e-17,223.90907,-5.0,1.468549e-19,1.7770561,8.300032,1.0119371,-7.2880945,-0.8780803,4,-625.0,-1.5707963267948966,223.90907,-4.9603174603174605,1.7770561,15.9963045
56270,-581.0,-3.6317995e-15,126.764946,-4.611111,-2.8823807e-17,1.006071,7.131101,1.2442703,-5.886831,-0.825515,4,-576.0,-1.5707963267948966,126.764946,-4.571428571428571,1.006071,20.374481
56271,-581.0,-2.6829311e-15,123.29552,-4.611111,-2.1293105e-17,0.97853583,6.4579134,0.80616665,-5.6517467,-0.87516606,4,-576.0,-1.5707963267948966,123.29552,-4.571428571428571,0.97853583,14.919711
56272,-577.5,-5.751527e-15,126.76493,-4.5833335,-4.564704e-17,1.0060709,5.413144,1.2699623,-4.143182,-0.76539284,4,-572.5,-1.5707963267948963,126.76493,-4.5436507936507935,1.0060709,20.655184
56306,-623.0,-1.7164328e-14,133.70381,-4.9444447,-1.3622483e-16,1.0611414,5.6195216,0.8597002,-4.7598214,-0.84701544,4,-618.0,-1.5707963267948961,133.70381,-4.904761904761905,1.0611414,15.462749
56307,-623.0,-1.7780885e-14,130.23439,-4.9444447,-1.4111814e-16,1.0336063,5.663992,1.0665169,-4.597475,-0.81170225,4,-618.0,-1.5707963267948961,130.23439,-4.904761904761905,1.0336063,18.212124
56324,-630.0,-1.8535437e-14,140.64265,-5.0,-1.4710665e-16,1.1162115,7.368892,0.6889734,-6.679919,-0.9065024,4,-625.0,-1.5707963267948961,140.64265,-4.9603174603174605,1.1162115,11.874588
56325,-626.5,-1.7630374e-14,140.64267,-4.9722223,-1.3992361e-16,1.1162117,5.7880754,0.7831707,-5.0049047,-0.8646924,4,-621.5,-1.5707963267948961,140.64267,-4.932539682539683,1.1162117,13.578515
56437,-623.0,-9.718605e-15,175.33704,-4.9444447,-7.7131786e-17,1.3915638,4.7441006,0.8617134,-3.8823872,-0.81836104,4,-618.0,-1.5707963267948963,175.33704,-4.904761904761905,1.3915638,13.608495
56501,-623.0,-9.237428e-15,178.80647,-4.9444447,-7.331292e-17,1.419099,4.2025504,0.80247307,-3.4000773,-0.8090509,4,-618.0,-1.5707963267948966,178.80647,-4.904761904761905,1.419099,11.918172
56502,-630.0,-7.0442517e-15,182.27586,-5.0,-5.590676e-17,1.4466338,5.1213446,0.64412594,-4.4772186,-0.87422717,4,-625.0,-1.5707963267948966,182.27586,-4.9603174603174605,1.4466338,9.466285
56636,-630.0,0.0,64.31512,-5.0,0.0,0.5104374,5.129438,0.34420586,-4.785232,-0.932896,4,-625.0,1.5707963267948966,64.31512,-4.9603174603174605,0.5104374,8.765119
56787,-630.0,9.251859e-18,67.78455,-5.0,7.342745e-20,0.5379726,4.9097037,0.5708103,-4.3388934,-0.88373834,4,-625.0,1.5707963267948966,67.78455,-4.9603174603174605,0.5379726,11.769784
56792,-616.0,-1.5509028e-14,81.66235,-4.888889,-1.2308752e-16,0.6481139,5.7995057,0.7707796,-5.028726,-0.86709565,4,-611.0,1.5707963267948948,81.66235,-4.849206349206349,0.6481139,14.745738
56801,-619.5,-1.1624832e-14,81.66239,-4.9166665,-9.226057e-17,0.6481142,5.79166,0.7948656,-4.996794,-0.86275685,4,-614.5,1.5707963267948952,81.66239,-4.876984126984127,0.6481142,15.029906
57139,-616.0,-1.6655287e-14,85.13179,-4.888889,-1.3218481e-16,0.6756491,5.386278,0.79322433,-4.593054,-0.85273236,4,-611.0,1.5707963267948932,85.13179,-4.849206349206349,0.6756491,14.932331
57145,-619.5,-1.24868394e-14,85.13183,-4.9166665,-9.91019e-17,0.6756494,5.4410114,0.79561806,-4.6453934,-0.8537739,4,-614.5,1.570796326794894,85.13183,-4.876984126984127,0.6756494,14.940012
58040,-388.5,-2.3931639e-14,130.23442,-3.0833333,-1.8993364e-16,1.0336065,5.2742677,2.5449314,-2.7293363,-0.51748157,4,-383.5,-1.570796326794896,130.23442,-3.0436507936507935,1.0336065,33.22836
58546,-462.0,-9.224669e-15,210.03134,-3.6666667,-7.321166e-17,1.6669154,4.7054787,1.4904327,-3.215046,-0.68325585,4,-457.0,-1.5707963267948966,210.03134,-3.626984126984127,1.6669154,24.16243
58554,-469.0,-7.588412e-15,210.03139,-3.7222223,-6.022549e-17,1.6669158,4.632559,1.4695683,-3.1629906,-0.68277395,4,-464.0,-1.5707963267948966,210.03139,-3.6825396825396823,1.6669158,23.861189
58635,-388.5,-2.445254e-14,126.764984,-3.0833333,-1.9406778e-16,1.0060713,4.8461814,2.0460854,-2.800096,-0.5777943,4,-383.5,-1.570796326794896,126.764984,-3.0436507936507935,1.0060713,28.164913
58637,-385.0,-2.3722777e-14,130.23439,-3.0555556,-1.8827601e-16,1.0336063,5.37255,2.5422916,-2.8302584,-0.5267998,4,-380.0,-1.570796326794896,130.23439,-3.015873015873016,1.0336063,33.21959
59144,-630.0,-1.9539925e-14,314.1144,-5.0,-1.5507878e-16,2.4929714,8.444679,1.600111,-6.8445683,-0.81051844,4,-625.0,-1.5707963267948966,314.1144,-4.9603174603174605,2.4929714,28.09116
59165,-630.0,-9.238264e-15,300.23666,-5.0,-7.3319556e-17,2.3828306,6.777612,1.434885,-5.342727,-0.7882905,4,-625.0,-1.5707963267948966,300.23666,-4.9603174603174605,2.3828306,25.390032
72608,322.0,-8.881784e-16,341.8661,2.5555556,-7.0490355e-18,2.713223,4.8227153,1.2036095,-3.6191058,-0.7504291,2,327.0,-1.5707963267948966,341.8661,2.5952380952380953,2.713223,34.21422
72617,350.0,1.7763568e-15,341.86945,2.7777777,1.4098071e-17,2.7132497,4.751792,1.2046509,-3.547141,-0.74648494,2,355.0,-1.5707963267948966,341.86945,2.8174603174603177,2.7132497,34.218052
141903,-630.0,567.0,90.0,-5.0,4.5,0.71428573,4.2707915,0.84789467,-3.4228969,-0.80146664,3,-625.0,3.141592653589793,90.0,-4.9603174603174605,0.71428573,18.849188
141918,-630.0,609.0,90.0,-5.0,4.8333335,0.71428573,5.0134697,0.4703827,-4.543087,-0.9061762,3,-625.0,3.141592653589793,90.0,-4.9603174603174605,0.71428573,13.524521
142091,-630.0,616.0,90.0,-5.0,4.888889,0.71428573,4.3266387,0.38625336,-3.9403853,-0.91072667,3,-625.0,3.141592653589793,90.0,-4.9603174603174605,0.71428573,12.345937
146530,-630.0,112.0,90.0,-5.0,0.8888889,0.71428573,8.807049,1.1143208,-7.692728,-0.873474,4,-625.0,3.141592653589793,90.0,-4.9603174603174605,0.71428573,18.307152
149400,-574.0,-59.5,90.0,-4.5555553,-0.4722222,0.71428573,4.4755616,0.94262886,-3.5329328,-0.7893831,4,-569.0,0.0,90.0,-4.515873015873016,0.71428573,16.59967
149401,-570.5,-59.5,90.0,-4.5277777,-0.4722222,0.71428573,4.482601,0.9571676,-3.5254335,-0.7864705,4,-565.5,0.0,90.0,-4.488095238095238,0.71428573,16.758377
149441,-577.5,-59.5,90.0,-4.5833335,-0.4722222,0.71428573,4.4827466,0.9243202,-3.5584264,-0.79380494,4,-572.5,0.0,90.0,-4.5436507936507935,0.71428573,16.396347
149447,-584.5,-59.5,90.0,-4.638889,-0.4722222,0.71428573,4.3092556,0.8850479,-3.4242077,-0.794617,4,-579.5,0.0,90.0,-4.599206349206349,0.71428573,15.949683
149484,-630.0,-84.0,90.0,-5.0,-0.6666667,0.71428573,4.6294665,0.40565395,-4.2238126,-0.9123757,4,-625.0,0.0,90.0,-4.9603174603174605,0.71428573,9.523183
149485,-630.0,-87.5,90.0,-5.0,-0.6944444,0.71428573,8.526815,0.58127975,-7.9455357,-0.9318292,4,-625.0,0.0,90.0,-4.9603174603174605,0.71428573,11.974619
149486,-626.5,-87.5,90.0,-4.9722223,-0.6944444,0.71428573,5.8789105,1.0361252,-4.8427854,-0.82375556,4,-621.5,0.0,90.0,-4.932539682539683,0.71428573,17.571629
149531,-630.0,-28.0,90.0,-5.0,-0.22222222,0.71428573,4.2142754,0.9848223,-3.229453,-0.7663128,4,-625.0,0.0,90.0,-4.9603174603174605,0.71428573,16.76748
149608,-630.0,-91.0,90.0,-5.0,-0.7222222,0.71428573,6.629292,0.54540634,-6.0838857,-0.9177278,4,-625.0,0.0,90.0,-4.9603174603174605,0.71428573,11.415211
149674,-567.0,-59.5,90.0,-4.5,-0.4722222,0.71428573,4.414423,0.9698181,-3.4446049,-0.78030694,4,-562.0,0.0,90.0,-4.4603174603174605,0.71428573,16.89385
149695,-581.0,-59.5,90.0,-4.611111,-0.4722222,0.71428573,4.4586873,0.90131855,-3.5573688,-0.79785115,4,-576.0,0.0,90.0,-4.571428571428571,0.71428573,16.136692
149789,-630.0,105.0,90.0,-5.0,0.8333333,0.71428573,9.346887,0.9957657,-8.351121,-0.8934655,4,-625.0,3.141592653589793,90.0,-4.9603174603174605,0.71428573,17.127861
149912,-630.0,80.5,90.0,-5.0,0.6388889,0.71428573,4.00234,0.41387844,-3.5884614,-0.8965909,4,-625.0,3.141592653589793,90.0,-4.9603174603174605,0.71428573,9.70077
150004,-619.5,45.5,90.0,-4.9166665,0.3611111,0.71428573,4.7072797,0.9414692,-3.7658105,-0.7999972,4,-614.5,3.141592653589793,90.0,-4.876984126984127,0.71428573,16.5913
150090,-630.0,31.5,90.0,-5.0,0.25,0.71428573,5.460611,0.55363274,-4.906978,-0.8986134,4,-625.0,3.141592653589793,90.0,-4.9603174603174605,0.71428573,11.854459
150137,-630.0,77.0,90.0,-5.0,0.6111111,0.71428573,5.105701,0.458313,-4.647388,-0.91023505,4,-625.0,3.141592653589793,90.0,-4.9603174603174605,0.71428573,10.36103
150193,-623.0,45.5,90.0,-4.9444447,0.3611111,0.71428573,4.479544,0.90624905,-3.573295,-0.7976917,4,-618.0,3.141592653589793,90.0,-4.904761904761905,0.71428573,16.186617
150196,-623.0,49.0,90.0,-4.9444447,0.3888889,0.71428573,4.8676686,0.7766361,-4.0910325,-0.8404501,4,-618.0,3.141592653589793,90.0,-4.904761904761905,0.71428573,14.7863865
150280,-619.5,49.0,90.0,-4.9166665,0.3888889,0.71428573,5.1592884,0.778841,-4.3804474,-0.849041,4,-614.5,3.141592653589793,90.0,-4.876984126984127,0.71428573,14.826151
150307,-630.0,35.0,90.0,-5.0,0.2777778,0.71428573,4.6024246,0.5167408,-4.085684,-0.8877242,4,-625.0,3.141592653589793,90.0,-4.9603174603174605,0.71428573,11.19175
150456,-626.5,-14.0,90.0,-4.9722223,-0.11111111,0.71428573,4.721123,0.4814577,-4.2396655,-0.8980205,4,-621.5,0.0,90.0,-4.932539682539683,0.71428573,11.16028
150457,-630.0,-14.0,90.0,-5.0,-0.11111111,0.71428573,9.374705,0.49636078,-8.878345,-0.9470532,4,-625.0,0.0,90.0,-4.9603174603174605,0.71428573,11.380983
150463,-626.5,-10.5,90.0,-4.9722223,-0.083333336,0.71428573,6.4482,0.5620527,-5.8861475,-0.9128357,4,-621.5,0.0,90.0,-4.932539682539683,0.71428573,12.139831
150464,-630.0,-10.5,90.0,-5.0,-0.083333336,0.71428573,11.844055,0.61103916,-11.233016,-0.9484096,4,-625.0,0.0,90.0,-4.9603174603174605,0.71428573,12.756083
150730,-630.0,-3.5,90.0,-5.0,-0.027777778,0.71428573,7.1791477,0.6218252,-6.5573225,-0.91338456,4,-625.0,0.0,90.0,-4.9603174603174605,0.71428573,12.957756
150914,-626.5,-7.0,90.0,-4.9722223,-0.055555556,0.71428573,5.510903,0.5636215,-4.9472814,-0.8977261,4,-621.5,0.0,90.0,-4.932539682539683,0.71428573,12.221622
150915,-630.0,-7.0,90.0,-5.0,-0.055555556,0.71428573,10.296815,0.7197428,-9.577072,-0.93010044,4,-625.0,0.0,90.0,-4.9603174603174605,0.71428573,14.202118
156011,-630.0,-595.0,90.0,-5.0,-4.7222223,0.71428573,3.7816079,0.28161812,-3.4999897,-0.92552954,3,-625.0,0.0,90.0,-4.9603174603174605,0.71428573,10.126227
157086,-630.0,-357.0,90.0,-5.0,-2.8333333,0.71428573,6.032636,0.7065077,-5.3261285,-0.88288575,3,-625.0,0.0,90.0,-4.9603174603174605,0.71428573,15.541973
157108,-630.0,-364.0,90.0,-5.0,-2.8888888,0.71428573,5.747537,0.6363363,-5.111201,-0.8892854,3,-625.0,0.0,90.0,-4.9603174603174605,0.71428573,14.372115
157460,-630.0,-427.0,90.0,-5.0,-3.3888888,0.71428573,5.730831,0.8386364,-4.8921947,-0.8536624,3,-625.0,0.0,90.0,-4.9603174603174605,0.71428573,17.535915
