point_index,x,y,z,x_D,y_D,z_D,nut,nutEq_true,nut_pred,delta_nut_true,delta_nut_pred,delta_error,relative_error,ID,ax,theta,z_original,ax_d,z_d
49181,-182.0,0.0,869.2222,-1.4444444,0.0,6.898589,32.94792,6.4219837,-0.05155182,-26.525938,-32.999474,-6.4735355,0.2440455,1,-177.0,-1.5707963267948966,869.2222,-1.4047619047619047,6.898589
49182,-210.0,-1.7763568e-15,869.2228,-1.6666666,-1.4098071e-17,6.8985934,32.924,9.77517,-0.080768585,-23.14883,-33.00477,-9.855938,0.42576396,1,-205.0,-1.5707963267948966,869.2228,-1.626984126984127,6.8985934
49188,-182.0,0.0,896.97784,-1.4444444,0.0,7.1188717,32.94514,5.941869,-0.049354553,-27.003273,-32.994495,-5.9912224,0.22187023,1,-177.0,-1.5707963267948966,896.97784,-1.4047619047619047,7.1188717
49189,-210.0,0.0,896.9783,-1.6666666,0.0,7.118875,32.92148,9.28518,-0.0782547,-23.6363,-32.999733,-9.363434,0.39614636,1,-205.0,-1.5707963267948966,896.9783,-1.626984126984127,7.118875
49568,-630.0,1.7763568e-15,702.68945,-5.0,1.4098071e-17,5.5769005,33.447887,17.95146,0.39239502,-15.496428,-33.055492,-17.559065,1.1331041,1,-625.0,-1.5707963267948966,702.68945,-4.9603174603174605,5.5769005
49569,-630.0,-8.881784e-16,730.44495,-5.0,-7.0490355e-18,5.797182,31.652351,12.676003,-1.1466675,-18.976349,-32.79902,-13.82267,0.72841567,1,-625.0,-1.5707963267948966,730.44495,-4.9603174603174605,5.797182
49577,-630.0,0.0,758.2005,-5.0,0.0,6.017464,31.291857,16.532543,-1.4422474,-14.759314,-32.734104,-17.97479,1.2178608,1,-625.0,-1.5707963267948966,758.2005,-4.9603174603174605,6.017464
49585,-630.0,0.0,785.956,-5.0,0.0,6.237746,33.087143,13.777913,0.042484283,-19.30923,-33.04466,-13.735428,0.71133995,1,-625.0,-1.5707963267948966,785.956,-4.9603174603174605,6.237746
49593,-630.0,-8.881784e-16,813.7115,-5.0,-7.0490355e-18,6.458028,33.80935,22.869806,0.78372955,-10.939543,-33.02562,-22.086077,2.0189214,1,-625.0,-1.5707963267948966,813.7115,-4.9603174603174605,6.458028
49601,-630.0,-8.881784e-16,841.46704,-5.0,-7.0490355e-18,6.67831,33.80935,23.340048,0.7942543,-10.469301,-33.015095,-22.545794,2.1535146,1,-625.0,-1.5707963267948966,841.46704,-4.9603174603174605,6.67831
49612,-518.0,0.0,896.9731,-4.111111,0.0,7.118834,32.61478,7.4944844,-0.41460037,-25.120296,-33.02938,-7.9090843,0.31484836,1,-513.0,-1.5707963267948966,896.9731,-4.071428571428571,7.118834
49613,-546.0,0.0,896.97546,-4.3333335,0.0,7.118853,32.592247,6.8098283,-0.43564987,-25.78242,-33.027897,-7.2454777,0.28102398,1,-541.0,-1.5707963267948966,896.97546,-4.2936507936507935,7.118853
49616,-630.0,-8.881784e-16,896.978,-5.0,-7.0490355e-18,7.118873,33.374603,7.265455,0.35214615,-26.109148,-33.022457,-6.913309,0.26478493,1,-625.0,-1.5707963267948966,896.978,-4.9603174603174605,7.118873
49619,-518.0,1.7763568e-15,924.7299,-4.111111,1.4098071e-17,7.339126,33.79384,9.166873,0.8205452,-24.626965,-32.973293,-8.346329,0.33891016,1,-513.0,-1.5707963267948966,924.7299,-4.071428571428571,7.339126
49620,-546.0,0.0,924.7316,-4.3333335,0.0,7.33914,33.79795,8.712742,0.82011795,-25.085209,-32.977833,-7.892624,0.31463256,1,-541.0,-1.5707963267948966,924.7316,-4.2936507936507935,7.33914
49623,-630.0,0.0,924.7335,-5.0,0.0,7.3391547,33.80935,23.736618,0.8167534,-10.072731,-32.992596,-22.919865,2.2754369,1,-625.0,-1.5707963267948966,924.7335,-4.9603174603174605,7.3391547
49630,-630.0,-8.881784e-16,952.489,-5.0,-7.0490355e-18,7.559437,33.80935,24.13021,0.82468796,-9.679138,-32.98466,-23.305523,2.4078097,1,-625.0,-1.5707963267948966,952.489,-4.9603174603174605,7.559437
49637,-630.0,0.0,980.2439,-5.0,0.0,7.7797136,33.80935,32.931152,0.83091736,-0.8781967,-32.97843,-32.100235,36.55244,1,-625.0,-1.5707963267948966,980.2439,-4.9603174603174605,7.7797136
49638,-490.0,-8.881784e-16,1008.0,-3.8888888,-7.0490355e-18,8.0,33.36208,7.5440903,0.37604904,-25.81799,-32.98603,-7.168041,0.27763748,1,-485.0,-1.5707963267948966,1008.0,-3.8492063492063493,8.0
49640,-518.0,0.0,1008.0,-4.111111,0.0,8.0,33.583836,13.724605,0.6094818,-19.85923,-32.974354,-13.115124,0.66040444,1,-513.0,-1.5707963267948966,1008.0,-4.071428571428571,8.0
49641,-546.0,-8.881784e-16,1008.0,-4.3333335,-7.0490355e-18,8.0,33.74634,19.23598,0.7801132,-14.510363,-32.96623,-18.455866,1.2719094,1,-541.0,-1.5707963267948966,1008.0,-4.2936507936507935,8.0
49642,-574.0,0.0,1008.0,-4.5555553,0.0,8.0,33.559772,20.665596,0.57611465,-12.8941765,-32.983658,-20.089481,1.5580275,1,-569.0,-1.5707963267948966,1008.0,-4.515873015873016,8.0
49643,-602.0,1.7763568e-15,1008.0,-4.7777777,1.4098071e-17,8.0,32.599712,25.423721,-0.41573715,-7.175991,-33.01545,-25.839458,3.6008208,1,-597.0,-1.5707963267948966,1008.0,-4.738095238095238,8.0
49644,-630.0,0.0,1008.0,-5.0,0.0,8.0,32.84315,40.208313,-0.17299652,7.365162,-33.016148,-40.38131,-5.4827456,1,-625.0,-1.5707963267948966,1008.0,-4.9603174603174605,8.0
49710,-630.0,0.0,619.4228,-5.0,0.0,4.916054,33.80935,16.826397,0.75878143,-16.982952,-33.050568,-16.067616,0.9461026,1,-625.0,-1.5707963267948966,619.4228,-4.9603174603174605,4.916054
49711,-630.0,-8.881784e-16,647.17834,-5.0,-7.0490355e-18,5.136336,33.80935,23.252134,0.74811935,-10.557215,-33.06123,-22.504015,2.1316242,1,-625.0,-1.5707963267948966,647.17834,-4.9603174603174605,5.136336
49719,-630.0,-8.881784e-16,674.9339,-5.0,-7.0490355e-18,5.3566184,33.80935,24.953234,0.7442093,-8.856115,-33.06514,-24.209024,2.7335942,1,-625.0,-1.5707963267948966,674.9339,-4.9603174603174605,5.3566184
53583,-630.0,0.0,369.62192,-5.0,0.0,2.9335072,31.857222,15.80842,1.2449112,-16.048801,-30.61231,-14.563509,0.9074515,1,-625.0,-1.5707963267948966,369.62192,-4.9603174603174605,2.9335072
53593,-630.0,-8.881784e-16,397.3777,-5.0,-7.0490355e-18,3.1537912,31.006351,11.620606,0.74531174,-19.385746,-30.26104,-10.875294,0.5609943,1,-625.0,-1.5707963267948966,397.3777,-4.9603174603174605,3.1537912
55839,-630.0,-1.8593593e-14,144.11209,-5.0,-1.475682e-16,1.1437467,13.20278,6.939229,0.9280691,-6.2635508,-12.274711,-6.01116,0.9597048,1,-625.0,-1.5707963267948961,144.11209,-4.9603174603174605,1.1437467
55983,-626.5,-9.744284e-15,175.337,-4.9722223,-7.7335584e-17,1.3915635,14.3936405,7.1401978,1.0577173,-7.253443,-13.335923,-6.0824804,0.83856463,1,-621.5,-1.5707963267948963,175.337,-4.932539682539683,1.3915635
56123,-626.5,-5.345983e-15,196.15361,-4.9722223,-4.2428436e-17,1.5567747,18.272545,7.9781137,1.4229908,-10.294432,-16.849554,-6.5551224,0.6367639,1,-621.5,-1.5707963267948966,196.15361,-4.932539682539683,1.5567747
56124,-630.0,-2.1592706e-15,196.1536,-5.0,-1.7137068e-17,1.5567746,16.573967,10.18732,1.2561874,-6.386647,-15.31778,-8.931132,1.398407,1,-625.0,-1.5707963267948966,196.1536,-4.9603174603174605,1.5567746
56125,-630.0,-3.2389058e-15,192.68417,-5.0,-2.5705602e-17,1.5292394,11.857492,7.7482743,0.8337498,-4.109218,-11.023743,-6.9145246,1.6826862,1,-625.0,-1.5707963267948966,192.68417,-4.9603174603174605,1.5292394
56192,-630.0,3.7007435e-17,216.97021,-5.0,2.937098e-19,1.7219858,19.035063,8.333984,1.485426,-10.701078,-17.549637,-6.8485584,0.6399877,1,-625.0,-1.5707963267948966,216.97021,-4.9603174603174605,1.7219858
56196,-630.0,1.8503718e-17,223.90907,-5.0,1.468549e-19,1.7770561,15.9963045,8.300032,1.1332922,-7.696273,-14.863012,-7.1667395,0.93119615,1,-625.0,-1.5707963267948966,223.90907,-4.9603174603174605,1.7770561
56324,-630.0,-1.8535437e-14,140.64265,-5.0,-1.4710665e-16,1.1162115,11.874588,7.368892,0.79746914,-4.505696,-11.077119,-6.571423,1.4584702,1,-625.0,-1.5707963267948961,140.64265,-4.9603174603174605,1.1162115
59144,-630.0,-1.9539925e-14,314.1144,-5.0,-1.5507878e-16,2.4929714,28.09116,8.444679,1.5310688,-19.64648,-26.560091,-6.9136105,0.3519007,1,-625.0,-1.5707963267948966,314.1144,-4.9603174603174605,2.4929714
146530,-630.0,112.0,90.0,-5.0,0.8888889,0.71428573,18.307152,8.807049,1.381855,-9.500103,-16.925297,-7.425194,0.7815909,1,-625.0,3.141592653589793,90.0,-4.9603174603174605,0.71428573
149485,-630.0,-87.5,90.0,-5.0,-0.6944444,0.71428573,11.974619,8.526815,0.6713848,-3.4478035,-11.303234,-7.8554306,2.278387,1,-625.0,0.0,90.0,-4.9603174603174605,0.71428573
149608,-630.0,-91.0,90.0,-5.0,-0.7222222,0.71428573,11.415211,6.629292,0.62224007,-4.7859187,-10.792971,-6.007052,1.2551513,1,-625.0,0.0,90.0,-4.9603174603174605,0.71428573
149789,-630.0,105.0,90.0,-5.0,0.8333333,0.71428573,17.127861,9.346887,1.2241211,-7.7809744,-15.90374,-8.122766,1.0439265,1,-625.0,3.141592653589793,90.0,-4.9603174603174605,0.71428573
150457,-630.0,-14.0,90.0,-5.0,-0.11111111,0.71428573,11.380983,9.374705,0.66841316,-2.006278,-10.71257,-8.706292,4.3395243,1,-625.0,0.0,90.0,-4.9603174603174605,0.71428573
150463,-626.5,-10.5,90.0,-4.9722223,-0.083333336,0.71428573,12.139831,6.4482,0.71942806,-5.6916304,-11.420403,-5.728772,1.0065256,1,-621.5,0.0,90.0,-4.932539682539683,0.71428573
150464,-630.0,-10.5,90.0,-5.0,-0.083333336,0.71428573,12.756083,11.844055,0.79275036,-0.91202736,-11.963332,-11.051305,12.117295,1,-625.0,0.0,90.0,-4.9603174603174605,0.71428573
150730,-630.0,-3.5,90.0,-5.0,-0.027777778,0.71428573,12.957756,7.1791477,0.7601013,-5.7786083,-12.197655,-6.4190464,1.1108291,1,-625.0,0.0,90.0,-4.9603174603174605,0.71428573
150915,-630.0,-7.0,90.0,-5.0,-0.055555556,0.71428573,14.202118,10.296815,0.88006496,-3.905303,-13.322053,-9.41675,2.4112725,1,-625.0,0.0,90.0,-4.9603174603174605,0.71428573
